digraph Tree {
node [shape=box, style="filled", color="black"] ;
0 [label="Pressure <= 54.0\nentropy = 1.0\nsamples = 6\nvalue = [3, 3]\nclass = -", fillcolor="#ffffff"] ;
1 [label="entropy = 0.0\nsamples = 2\nvalue = [0, 2]\nclass = +", fillcolor="#399de5"] ;
0 -> 1 [labeldistance=2.5, labelangle=45, headlabel="True"] ;
2 [label="entropy = 0.811\nsamples = 4\nvalue = [3, 1]\nclass = -", fillcolor="#eeab7b"] ;
0 -> 2 [labeldistance=2.5, labelangle=-45, headlabel="False"] ;
}